-0.046788601894798,0.0897533301939862,0.258183025952343,-0.0139709835511455,-0.453217910229771,-0.147566736184587,0.271065275880204,0.262591653727984,0.215302284928537,0.0553709313933885,-0.106217795056648,0.346263116932416,0.224676695343733,-0.302688802239648,0.371644494023772,0.504549218895813,-0.0953110482017733,-0.18975292647148,0.261626494345007,-0.0525043213490756,0.117133262125435,-0.337980624232377,0.16253765362902,-0.147189015733787,-2.44307495356722,-3.9826487009642,-2.59055735728867,-3.20986083824976,1.26408279085971,3.70028586734508,-0.126197270165239,-0.0161105423494681,0.161049211342275,0.0144954379619778,-0.101881134729657,0.0320389299913748,0.184929813390143,0.0983208838902003,-0.018843428013984,-0.288294643258203,0.178599580815468,-0.108307344099093,-6.20878075402652,-10.1365354630916,-7.65758680707571,-7.8605152873611,0.6076917984409,10.2958634469478,-0.120123058296161,0.340773710560431,-0.254438697241934,-0.0405483200967361,0.221509053440821,-0.0473549156900537,-4.77194938653143,-7.38247404101518,-5.60055242011293,-6.49765919669747,0.0105104751849862,7.33074191811708,0.0713929531816097,-0.0659400336205198,0.0802364091361342,0.112210824319661,-0.145637652687026,0.517575226534852,0.397143491152602,-0.456318631268479,-0.0343604196748546,-0.366171497839875,0.173007795467591,-0.271165374368405,-0.0197259182130034,0.199994293303324,0.40658040725297,-0.729824772717344,0.228790101768513,1.60292687566666,-1.5720424807297,0.674742486498295,-1.23118357274686,4.31518932820366,
