0.00130662322044373,-0.287234887445203,0.322361736281591,-0.179339004433659,0.415172651108768,-0.438558463047928,0.276835083961487,-0.023898260708654,0.0368346418665208,0.0221393734742963,0.0451678214943195,-0.446726031561724,0.394473165273666,0.398826345236936,-0.301523153319756,-0.442769837994355,0.187001410169702,-0.144551203966633,-0.447164714336395,-0.270305843113969,0.134117334611574,0.446330815537704,0.391139331353799,0.383547787662212,0.26533642411232,0.213472985313485,0.234201982035584,-0.236443185152114,0.390211400837053,0.089367833777043,-0.227426454424858,0.154095642885897,-0.395403325878204,0.203710081792155,0.00872350066378623,0.239631992452002,0.192561611533165,-0.227557788328364,0.0296477598170603,0.415973800658213,-0.10533538014457,0.0536869943425171,-0.36764121055603,0.0274587852296087,0.326842380851203,-0.23225064592708,0.458626512616797,0.387891962448715,0.363131105899811,0.344042392077474,0.162341570259955,-0.140604327385155,0.427677983280021,0.0688329490930461,-0.42241096496582,0.283144983711357,-0.0279721023725893,-0.2607270964584,-0.160027222866311,0.434041498948194,0.115821646450938,0.411861559026893,-0.0293530807481652,-0.260890511023175,0.293242590959096,-0.102746082176429,0.0441787875269305,-0.324702310829204,0.381326653745362,-0.177283275497139,-0.352611853919042,0.256430449805006,-0.244100032154218,0.39050824464758,-0.0762586447556905,0.450346319484517,-0.103318874358459,-0.442530133693732,0.343066155486006,0.145422634699723,-0.226644918586353,0.366083348545352,
