-0.341610133647919,-0.200150012969971,0.0354926586151123,-0.141043469309807,0.438081204891205,-0.180644378066063,0.407009243965149,-0.2925985455513,-0.420280516147614,0.205200582742691,0.389769524335861,0.402482986450195,0.350733399391174,0.223888784646988,0.192137703299522,0.297401279211044,-0.246870025992393,0.115673169493675,-0.141675755381584,-0.264863431453705,-0.377884387969971,0.114152252674103,-0.195453479886055,-0.413625419139862,-0.411639988422394,0.438994586467743,0.153035640716553,-0.0208666324615479,-0.257862150669098,-0.445611298084259,-0.0778912901878357,0.297241747379303,-0.242748200893402,-0.211200550198555,0.149151861667633,-0.438948452472687,0.268192410469055,0.14739416539669,-0.255135595798492,0.158356353640556,0.414431095123291,0.164322718977928,-0.144431129097939,-0.470029950141907,-0.166987672448158,0.294233083724976,0.0255450010299683,0.295794427394867,-0.00480327010154724,0.111858263611794,-0.183423340320587,-0.119728028774261,-0.38678914308548,0.289032548666,-0.101015448570251,-0.0620139837265015,-0.176664233207703,-0.138937518000603,-0.4082892537117,-0.0950924605131149,0.0127455368638039,-0.0741733089089394,-0.0935728251934052,-0.0609524622559547,0.202406108379364,0.029315210878849,0.22252145409584,-0.208308637142181,0.124071292579174,-0.0578143820166588,0.138269290328026,0.105441562831402,-0.0274784341454506,-0.136451005935669,0.134664922952652,-0.110735863447189,-0.14985203742981,-0.103222019970417,0.0125535726547241,-0.184869468212128,0.0980677902698517,0.233805596828461,
